digraph Tree {
node [shape=box, fontname="helvetica"] ;
edge [fontname="helvetica"] ;
0 [label="X[2] <= 2.45\ngini = 0.666\nsamples = 112\nvalue = [39, 35, 38]"] ;
1 [label="gini = 0.0\nsamples = 39\nvalue = [39, 0, 0]"] ;
0 -> 1 [labeldistance=2.5, labelangle=45, headlabel="True"] ;
2 [label="X[3] <= 1.65\ngini = 0.499\nsamples = 73\nvalue = [0, 35, 38]"] ;
0 -> 2 [labeldistance=2.5, labelangle=-45, headlabel="False"] ;
3 [label="X[2] <= 4.95\ngini = 0.145\nsamples = 38\nvalue = [0, 35, 3]"] ;
2 -> 3 ;
4 [label="gini = 0.0\nsamples = 34\nvalue = [0, 34, 0]"] ;
3 -> 4 ;
5 [label="X[0] <= 6.15\ngini = 0.375\nsamples = 4\nvalue = [0, 1, 3]"] ;
3 -> 5 ;
6 [label="X[1] <= 2.45\ngini = 0.5\nsamples = 2\nvalue = [0, 1, 1]"] ;
5 -> 6 ;
7 [label="gini = 0.0\nsamples = 1\nvalue = [0, 0, 1]"] ;
6 -> 7 ;
8 [label="gini = 0.0\nsamples = 1\nvalue = [0, 1, 0]"] ;
6 -> 8 ;
9 [label="gini = 0.0\nsamples = 2\nvalue = [0, 0, 2]"] ;
5 -> 9 ;
10 [label="gini = 0.0\nsamples = 35\nvalue = [0, 0, 35]"] ;
2 -> 10 ;
}